%YAML:1.0
---
opencv_ml_boost:
   format: 3
   is_classifier: 1
   var_all: 86
   var_count: 85
   ord_var_count: 85
   cat_var_count: 1
   training_params:
      boosting_type: DiscreteAdaboost
      use_surrogates: 0
      max_categories: 10
      regression_accuracy: 9.9999997764825821e-03
      max_depth: 1
      min_sample_count: 10
      cross_validation_folds: 0
      weight_trimming_rate: 9.4999999999999996e-01
   global_var_idx: 1
   var_idx: [ 0, 1, 2, 3, 4, 5, 6, 7, 8, 9, 10, 11, 12, 13, 14, 15, 16,
       17, 18, 19, 20, 21, 22, 23, 24, 25, 26, 27, 28, 29, 30, 31, 32,
       33, 34, 35, 36, 37, 38, 39, 40, 41, 42, 43, 44, 45, 46, 47, 48,
       49, 50, 51, 52, 53, 54, 55, 56, 57, 58, 59, 60, 61, 62, 63, 64,
       65, 66, 67, 68, 69, 70, 71, 72, 73, 74, 75, 76, 77, 78, 79, 80,
       81, 82, 83, 84 ]
   var_type: [ 0, 0, 0, 0, 0, 0, 0, 0, 0, 0, 0, 0, 0, 0, 0, 0, 0, 0, 0,
       0, 0, 0, 0, 0, 0, 0, 0, 0, 0, 0, 0, 0, 0, 0, 0, 0, 0, 0, 0, 0, 0,
       0, 0, 0, 0, 0, 0, 0, 0, 0, 0, 0, 0, 0, 0, 0, 0, 0, 0, 0, 0, 0, 0,
       0, 0, 0, 0, 0, 0, 0, 0, 0, 0, 0, 0, 0, 0, 0, 0, 0, 0, 0, 0, 0, 0,
       1 ]
   cat_ofs: [ 0, 0, 0, 0, 0, 0, 0, 0, 0, 0, 0, 0, 0, 0, 0, 0, 0, 0, 0, 0,
       0, 0, 0, 0, 0, 0, 0, 0, 0, 0, 0, 0, 0, 0, 0, 0, 0, 0, 0, 0, 0, 0,
       0, 0, 0, 0, 0, 0, 0, 0, 0, 0, 0, 0, 0, 0, 0, 0, 0, 0, 0, 0, 0, 0,
       0, 0, 0, 0, 0, 0, 0, 0, 0, 0, 0, 0, 0, 0, 0, 0, 0, 0, 0, 0, 0, 0,
       0, 0, 0, 0, 0, 0, 0, 0, 0, 0, 0, 0, 0, 0, 0, 0, 0, 0, 0, 0, 0, 0,
       0, 0, 0, 0, 0, 0, 0, 0, 0, 0, 0, 0, 0, 0, 0, 0, 0, 0, 0, 0, 0, 0,
       0, 0, 0, 0, 0, 0, 0, 0, 0, 0, 0, 0, 0, 0, 0, 0, 0, 0, 0, 0, 0, 0,
       0, 0, 0, 0, 0, 0, 0, 0, 0, 0, 0, 0, 0, 0, 0, 0, 0, 0 ]
   class_labels: [ -1, 1 ]
   missing_subst: [ 0., 0., 0., 0., 0., 0., 0., 0., 0., 0., 0., 0., 0.,
       0., 0., 0., 0., 0., 0., 0., 0., 0., 0., 0., 0., 0., 0., 0., 0.,
       0., 0., 0., 0., 0., 0., 0., 0., 0., 0., 0., 0., 0., 0., 0., 0.,
       0., 0., 0., 0., 0., 0., 0., 0., 0., 0., 0., 0., 0., 0., 0., 0.,
       0., 0., 0., 0., 0., 0., 0., 0., 0., 0., 0., 0., 0., 0., 0., 0.,
       0., 0., 0., 0., 0., 0., 0., 0., 0. ]
   ntrees: 100
   trees:
      -
         nodes:
            -
               depth: 0
               value: 2.5123056239761152e+00
               norm_class_idx: 1
               splits:
                  - { var:74, quality:8.6799997091293335e-01,
                      le:4.2087540030479431e-02 }
            -
               depth: 1
               value: 2.5123056239761152e+00
               norm_class_idx: 1
            -
               depth: 1
               value: -2.5123056239761152e+00
               norm_class_idx: 0
      -
         nodes:
            -
               depth: 0
               value: -1.8562979903656263e+00
               norm_class_idx: 0
               splits:
                  - { var:6, quality:7.7332168817520142e-01,
                      le:1.5162784576416016e+01 }
            -
               depth: 1
               value: -1.8562979903656263e+00
               norm_class_idx: 0
            -
               depth: 1
               value: 1.8562979903656263e+00
               norm_class_idx: 1
      -
         nodes:
            -
               depth: 0
               value: 1.5008977438588944e+00
               norm_class_idx: 1
               splits:
                  - { var:72, quality:7.1192198991775513e-01,
                      le:5.3699947893619537e-02 }
            -
               depth: 1
               value: 1.5008977438588944e+00
               norm_class_idx: 1
            -
               depth: 1
               value: -1.5008977438588944e+00
               norm_class_idx: 0
      -
         nodes:
            -
               depth: 0
               value: -1.6530916807849894e+00
               norm_class_idx: 0
               splits:
                  - { var:79, quality:7.7132558822631836e-01,
                      le:4.2087540030479431e-02 }
            -
               depth: 1
               value: 1.6530916807849894e+00
               norm_class_idx: 1
            -
               depth: 1
               value: -1.6530916807849894e+00
               norm_class_idx: 0
      -
         nodes:
            -
               depth: 0
               value: -2.1345499295549950e+00
               norm_class_idx: 0
               splits:
                  - { var:1, quality:8.0966848134994507e-01,
                      le:6.1520660400390625e+01 }
            -
               depth: 1
               value: -2.1345499295549950e+00
               norm_class_idx: 0
            -
               depth: 1
               value: 2.1345499295549950e+00
               norm_class_idx: 1
      -
         nodes:
            -
               depth: 0
               value: 1.1544683419137471e+00
               norm_class_idx: 1
               splits:
                  - { var:55, quality:6.8560171127319336e-01,
                      le:7.9026399180293083e-03 }
            -
               depth: 1
               value: -1.1544683419137471e+00
               norm_class_idx: 0
            -
               depth: 1
               value: 1.1544683419137471e+00
               norm_class_idx: 1
      -
         nodes:
            -
               depth: 0
               value: 1.7658238146024785e+00
               norm_class_idx: 1
               splits:
                  - { var:17, quality:7.7148520946502686e-01,
                      le:8.3664436340332031e+00 }
            -
               depth: 1
               value: 1.7658238146024785e+00
               norm_class_idx: 1
            -
               depth: 1
               value: -1.7658238146024785e+00
               norm_class_idx: 0
      -
         nodes:
            -
               depth: 0
               value: -1.6766426574670370e+00
               norm_class_idx: 0
               splits:
                  - { var:19, quality:7.4961978197097778e-01,
                      le:4.2087540030479431e-02 }
            -
               depth: 1
               value: 1.6766426574670370e+00
               norm_class_idx: 1
            -
               depth: 1
               value: -1.6766426574670370e+00
               norm_class_idx: 0
      -
         nodes:
            -
               depth: 0
               value: -2.0692907379505927e+00
               norm_class_idx: 0
               splits:
                  - { var:7, quality:8.0157053470611572e-01,
                      le:2.5785749435424805e+01 }
            -
               depth: 1
               value: -2.0692907379505927e+00
               norm_class_idx: 0
            -
               depth: 1
               value: 2.0692907379505927e+00
               norm_class_idx: 1
      -
         nodes:
            -
               depth: 0
               value: 1.4039764340091381e+00
               norm_class_idx: 1
               splits:
                  - { var:79, quality:6.8151605129241943e-01,
                      le:4.2087540030479431e-02 }
            -
               depth: 1
               value: 1.4039764340091381e+00
               norm_class_idx: 1
            -
               depth: 1
               value: -1.4039764340091381e+00
               norm_class_idx: 0
      -
         nodes:
            -
               depth: 0
               value: -1.6093270097584764e+00
               norm_class_idx: 0
               splits:
                  - { var:0, quality:7.1687227487564087e-01,
                      le:3.8065495491027832e+00 }
            -
               depth: 1
               value: -1.6093270097584764e+00
               norm_class_idx: 0
            -
               depth: 1
               value: 1.6093270097584764e+00
               norm_class_idx: 1
      -
         nodes:
            -
               depth: 0
               value: 1.6512040932582221e+00
               norm_class_idx: 1
               splits:
                  - { var:4, quality:7.2097373008728027e-01,
                      le:5.4713803529739380e-01 }
            -
               depth: 1
               value: -1.6512040932582221e+00
               norm_class_idx: 0
            -
               depth: 1
               value: 1.6512040932582221e+00
               norm_class_idx: 1
      -
         nodes:
            -
               depth: 0
               value: 1.7836007957444893e+00
               norm_class_idx: 1
               splits:
                  - { var:73, quality:7.2830724716186523e-01,
                      le:2.5252526998519897e-01 }
            -
               depth: 1
               value: 1.7836007957444893e+00
               norm_class_idx: 1
            -
               depth: 1
               value: -1.7836007957444893e+00
               norm_class_idx: 0
      -
         nodes:
            -
               depth: 0
               value: -1.7373486625336769e+00
               norm_class_idx: 0
               splits:
                  - { var:10, quality:7.3492217063903809e-01,
                      le:1.6281433403491974e-01 }
            -
               depth: 1
               value: -1.7373486625336769e+00
               norm_class_idx: 0
            -
               depth: 1
               value: 1.7373486625336769e+00
               norm_class_idx: 1
      -
         nodes:
            -
               depth: 0
               value: 1.7292168889932307e+00
               norm_class_idx: 1
               splits:
                  - { var:2, quality:7.4333745241165161e-01,
                      le:1.3767352294921875e+02 }
            -
               depth: 1
               value: 1.7292168889932307e+00
               norm_class_idx: 1
            -
               depth: 1
               value: -1.7292168889932307e+00
               norm_class_idx: 0
      -
         nodes:
            -
               depth: 0
               value: -1.7494553052312602e+00
               norm_class_idx: 0
               splits:
                  - { var:1, quality:7.4931293725967407e-01,
                      le:6.1520660400390625e+01 }
            -
               depth: 1
               value: -1.7494553052312602e+00
               norm_class_idx: 0
            -
               depth: 1
               value: 1.7494553052312602e+00
               norm_class_idx: 1
      -
         nodes:
            -
               depth: 0
               value: 1.7051798181554105e+00
               norm_class_idx: 1
               splits:
                  - { var:73, quality:7.1246004104614258e-01,
                      le:2.5252526998519897e-01 }
            -
               depth: 1
               value: 1.7051798181554105e+00
               norm_class_idx: 1
            -
               depth: 1
               value: -1.7051798181554105e+00
               norm_class_idx: 0
      -
         nodes:
            -
               depth: 0
               value: -1.6442372782582897e+00
               norm_class_idx: 0
               splits:
                  - { var:7, quality:7.1595633029937744e-01,
                      le:3.1972618103027344e+01 }
            -
               depth: 1
               value: -1.6442372782582897e+00
               norm_class_idx: 0
            -
               depth: 1
               value: 1.6442372782582897e+00
               norm_class_idx: 1
      -
         nodes:
            -
               depth: 0
               value: 1.3466329850649512e+00
               norm_class_idx: 1
               splits:
                  - { var:2, quality:6.6905725002288818e-01,
                      le:1.3767352294921875e+02 }
            -
               depth: 1
               value: 1.3466329850649512e+00
               norm_class_idx: 1
            -
               depth: 1
               value: -1.3466329850649512e+00
               norm_class_idx: 0
      -
         nodes:
            -
               depth: 0
               value: -1.6873363903132497e+00
               norm_class_idx: 0
               splits:
                  - { var:2, quality:7.1898555755615234e-01,
                      le:1.9355897903442383e+01 }
            -
               depth: 1
               value: -1.6873363903132497e+00
               norm_class_idx: 0
            -
               depth: 1
               value: 1.6873363903132497e+00
               norm_class_idx: 1
      -
         nodes:
            -
               depth: 0
               value: -1.4907186928705409e+00
               norm_class_idx: 0
               splits:
                  - { var:7, quality:6.8770855665206909e-01,
                      le:2.5785749435424805e+01 }
            -
               depth: 1
               value: -1.4907186928705409e+00
               norm_class_idx: 0
            -
               depth: 1
               value: 1.4907186928705409e+00
               norm_class_idx: 1
      -
         nodes:
            -
               depth: 0
               value: 1.5063111257252262e+00
               norm_class_idx: 1
               splits:
                  - { var:2, quality:7.2623002529144287e-01,
                      le:1.3767352294921875e+02 }
            -
               depth: 1
               value: 1.5063111257252262e+00
               norm_class_idx: 1
            -
               depth: 1
               value: -1.5063111257252262e+00
               norm_class_idx: 0
      -
         nodes:
            -
               depth: 0
               value: -1.4539526187247012e+00
               norm_class_idx: 0
               splits:
                  - { var:5, quality:6.8820446729660034e-01,
                      le:6.0287823677062988e+00 }
            -
               depth: 1
               value: -1.4539526187247012e+00
               norm_class_idx: 0
            -
               depth: 1
               value: 1.4539526187247012e+00
               norm_class_idx: 1
      -
         nodes:
            -
               depth: 0
               value: 1.7633505039054931e+00
               norm_class_idx: 1
               splits:
                  - { var:13, quality:7.3741424083709717e-01,
                      le:2.0168979644775391e+01 }
            -
               depth: 1
               value: 1.7633505039054931e+00
               norm_class_idx: 1
            -
               depth: 1
               value: -1.7633505039054931e+00
               norm_class_idx: 0
      -
         nodes:
            -
               depth: 0
               value: -1.7042799280764649e+00
               norm_class_idx: 0
               splits:
                  - { var:1, quality:7.3318183422088623e-01,
                      le:6.1520660400390625e+01 }
            -
               depth: 1
               value: -1.7042799280764649e+00
               norm_class_idx: 0
            -
               depth: 1
               value: 1.7042799280764649e+00
               norm_class_idx: 1
      -
         nodes:
            -
               depth: 0
               value: 1.4895756619199523e+00
               norm_class_idx: 1
               splits:
                  - { var:79, quality:6.7956751585006714e-01,
                      le:4.2087540030479431e-02 }
            -
               depth: 1
               value: 1.4895756619199523e+00
               norm_class_idx: 1
            -
               depth: 1
               value: -1.4895756619199523e+00
               norm_class_idx: 0
      -
         nodes:
            -
               depth: 0
               value: -1.5421418835606375e+00
               norm_class_idx: 0
               splits:
                  - { var:2, quality:7.4007070064544678e-01,
                      le:1.3723396301269531e+02 }
            -
               depth: 1
               value: 1.5421418835606375e+00
               norm_class_idx: 1
            -
               depth: 1
               value: -1.5421418835606375e+00
               norm_class_idx: 0
      -
         nodes:
            -
               depth: 0
               value: -1.9645692249975211e+00
               norm_class_idx: 0
               splits:
                  - { var:7, quality:7.7853649854660034e-01,
                      le:3.1972618103027344e+01 }
            -
               depth: 1
               value: -1.9645692249975211e+00
               norm_class_idx: 0
            -
               depth: 1
               value: 1.9645692249975211e+00
               norm_class_idx: 1
      -
         nodes:
            -
               depth: 0
               value: 1.1315773209138889e+00
               norm_class_idx: 1
               splits:
                  - { var:5, quality:6.5658348798751831e-01,
                      le:6.0287823677062988e+00 }
            -
               depth: 1
               value: -1.1315773209138889e+00
               norm_class_idx: 0
            -
               depth: 1
               value: 1.1315773209138889e+00
               norm_class_idx: 1
      -
         nodes:
            -
               depth: 0
               value: 1.7812181127221405e+00
               norm_class_idx: 1
               splits:
                  - { var:73, quality:7.0919579267501831e-01,
                      le:2.5252526998519897e-01 }
            -
               depth: 1
               value: 1.7812181127221405e+00
               norm_class_idx: 1
            -
               depth: 1
               value: -1.7812181127221405e+00
               norm_class_idx: 0
      -
         nodes:
            -
               depth: 0
               value: -1.6970530356125233e+00
               norm_class_idx: 0
               splits:
                  - { var:4, quality:7.4228107929229736e-01,
                      le:2.7722388505935669e-01 }
            -
               depth: 1
               value: -1.6970530356125233e+00
               norm_class_idx: 0
            -
               depth: 1
               value: 1.6970530356125233e+00
               norm_class_idx: 1
      -
         nodes:
            -
               depth: 0
               value: -1.4272878503803175e+00
               norm_class_idx: 0
               splits:
                  - { var:10, quality:6.9170415401458740e-01,
                      le:1.6281433403491974e-01 }
            -
               depth: 1
               value: -1.4272878503803175e+00
               norm_class_idx: 0
            -
               depth: 1
               value: 1.4272878503803175e+00
               norm_class_idx: 1
      -
         nodes:
            -
               depth: 0
               value: 1.4935236991245135e+00
               norm_class_idx: 1
               splits:
                  - { var:73, quality:6.6859847307205200e-01,
                      le:2.5252526998519897e-01 }
            -
               depth: 1
               value: 1.4935236991245135e+00
               norm_class_idx: 1
            -
               depth: 1
               value: -1.4935236991245135e+00
               norm_class_idx: 0
      -
         nodes:
            -
               depth: 0
               value: -1.4345965200499413e+00
               norm_class_idx: 0
               splits:
                  - { var:7, quality:6.8456357717514038e-01,
                      le:1.3241388797760010e+00 }
            -
               depth: 1
               value: 1.4345965200499413e+00
               norm_class_idx: 1
            -
               depth: 1
               value: -1.4345965200499413e+00
               norm_class_idx: 0
      -
         nodes:
            -
               depth: 0
               value: 1.2978522142281017e+00
               norm_class_idx: 1
               splits:
                  - { var:17, quality:6.5777832269668579e-01,
                      le:8.3664436340332031e+00 }
            -
               depth: 1
               value: 1.2978522142281017e+00
               norm_class_idx: 1
            -
               depth: 1
               value: -1.2978522142281017e+00
               norm_class_idx: 0
      -
         nodes:
            -
               depth: 0
               value: -1.3996076056380562e+00
               norm_class_idx: 0
               splits:
                  - { var:79, quality:7.0430588722229004e-01,
                      le:4.2087540030479431e-02 }
            -
               depth: 1
               value: 1.3996076056380562e+00
               norm_class_idx: 1
            -
               depth: 1
               value: -1.3996076056380562e+00
               norm_class_idx: 0
      -
         nodes:
            -
               depth: 0
               value: -2.0240183098749465e+00
               norm_class_idx: 0
               splits:
                  - { var:7, quality:7.8042203187942505e-01,
                      le:3.1972618103027344e+01 }
            -
               depth: 1
               value: -2.0240183098749465e+00
               norm_class_idx: 0
            -
               depth: 1
               value: 2.0240183098749465e+00
               norm_class_idx: 1
      -
         nodes:
            -
               depth: 0
               value: 1.3979626968480965e+00
               norm_class_idx: 1
               splits:
                  - { var:1, quality:6.9379836320877075e-01,
                      le:6.1520660400390625e+01 }
            -
               depth: 1
               value: -1.3979626968480965e+00
               norm_class_idx: 0
            -
               depth: 1
               value: 1.3979626968480965e+00
               norm_class_idx: 1
      -
         nodes:
            -
               depth: 0
               value: 1.7017117953546610e+00
               norm_class_idx: 1
               splits:
                  - { var:2, quality:7.4859249591827393e-01,
                      le:1.3767352294921875e+02 }
            -
               depth: 1
               value: 1.7017117953546610e+00
               norm_class_idx: 1
            -
               depth: 1
               value: -1.7017117953546610e+00
               norm_class_idx: 0
      -
         nodes:
            -
               depth: 0
               value: -1.8756457629076884e+00
               norm_class_idx: 0
               splits:
                  - { var:2, quality:7.4415802955627441e-01,
                      le:2.1081487655639648e+01 }
            -
               depth: 1
               value: -1.8756457629076884e+00
               norm_class_idx: 0
            -
               depth: 1
               value: 1.8756457629076884e+00
               norm_class_idx: 1
      -
         nodes:
            -
               depth: 0
               value: -1.4385815239779092e+00
               norm_class_idx: 0
               splits:
                  - { var:7, quality:6.8068879842758179e-01,
                      le:2.5785749435424805e+01 }
            -
               depth: 1
               value: -1.4385815239779092e+00
               norm_class_idx: 0
            -
               depth: 1
               value: 1.4385815239779092e+00
               norm_class_idx: 1
      -
         nodes:
            -
               depth: 0
               value: 1.5703466157807491e+00
               norm_class_idx: 1
               splits:
                  - { var:17, quality:7.2500270605087280e-01,
                      le:8.3664436340332031e+00 }
            -
               depth: 1
               value: 1.5703466157807491e+00
               norm_class_idx: 1
            -
               depth: 1
               value: -1.5703466157807491e+00
               norm_class_idx: 0
      -
         nodes:
            -
               depth: 0
               value: -1.4912258705826003e+00
               norm_class_idx: 0
               splits:
                  - { var:6, quality:6.9882363080978394e-01,
                      le:6.7340070009231567e-01 }
            -
               depth: 1
               value: -1.4912258705826003e+00
               norm_class_idx: 0
            -
               depth: 1
               value: 1.4912258705826003e+00
               norm_class_idx: 1
      -
         nodes:
            -
               depth: 0
               value: -1.5977020499818730e+00
               norm_class_idx: 0
               splits:
                  - { var:1, quality:7.0695054531097412e-01,
                      le:6.1520660400390625e+01 }
            -
               depth: 1
               value: -1.5977020499818730e+00
               norm_class_idx: 0
            -
               depth: 1
               value: 1.5977020499818730e+00
               norm_class_idx: 1
      -
         nodes:
            -
               depth: 0
               value: 1.1266804744526355e+00
               norm_class_idx: 1
               splits:
                  - { var:5, quality:6.6994005441665649e-01,
                      le:6.0287823677062988e+00 }
            -
               depth: 1
               value: -1.1266804744526355e+00
               norm_class_idx: 0
            -
               depth: 1
               value: 1.1266804744526355e+00
               norm_class_idx: 1
      -
         nodes:
            -
               depth: 0
               value: 1.6568180732061959e+00
               norm_class_idx: 1
               splits:
                  - { var:2, quality:7.1834933757781982e-01,
                      le:1.3767352294921875e+02 }
            -
               depth: 1
               value: 1.6568180732061959e+00
               norm_class_idx: 1
            -
               depth: 1
               value: -1.6568180732061959e+00
               norm_class_idx: 0
      -
         nodes:
            -
               depth: 0
               value: -1.5468789893819528e+00
               norm_class_idx: 0
               splits:
                  - { var:74, quality:7.0512068271636963e-01,
                      le:4.2087540030479431e-02 }
            -
               depth: 1
               value: 1.5468789893819528e+00
               norm_class_idx: 1
            -
               depth: 1
               value: -1.5468789893819528e+00
               norm_class_idx: 0
      -
         nodes:
            -
               depth: 0
               value: -1.7173492788164111e+00
               norm_class_idx: 0
               splits:
                  - { var:7, quality:7.2941207885742188e-01,
                      le:3.1972618103027344e+01 }
            -
               depth: 1
               value: -1.7173492788164111e+00
               norm_class_idx: 0
            -
               depth: 1
               value: 1.7173492788164111e+00
               norm_class_idx: 1
      -
         nodes:
            -
               depth: 0
               value: 1.5790353859767587e+00
               norm_class_idx: 1
               splits:
                  - { var:13, quality:7.0372289419174194e-01,
                      le:2.7997262954711914e+01 }
            -
               depth: 1
               value: 1.5790353859767587e+00
               norm_class_idx: 1
            -
               depth: 1
               value: -1.5790353859767587e+00
               norm_class_idx: 0
      -
         nodes:
            -
               depth: 0
               value: -1.5288358008363065e+00
               norm_class_idx: 0
               splits:
                  - { var:5, quality:7.1041703224182129e-01,
                      le:6.0604262351989746e+00 }
            -
               depth: 1
               value: -1.5288358008363065e+00
               norm_class_idx: 0
            -
               depth: 1
               value: 1.5288358008363065e+00
               norm_class_idx: 1
      -
         nodes:
            -
               depth: 0
               value: 1.3187209845311010e+00
               norm_class_idx: 1
               splits:
                  - { var:1, quality:6.9368320703506470e-01,
                      le:6.1520660400390625e+01 }
            -
               depth: 1
               value: -1.3187209845311010e+00
               norm_class_idx: 0
            -
               depth: 1
               value: 1.3187209845311010e+00
               norm_class_idx: 1
      -
         nodes:
            -
               depth: 0
               value: 1.8960500972976129e+00
               norm_class_idx: 1
               splits:
                  - { var:2, quality:7.8257381916046143e-01,
                      le:1.3767352294921875e+02 }
            -
               depth: 1
               value: 1.8960500972976129e+00
               norm_class_idx: 1
            -
               depth: 1
               value: -1.8960500972976129e+00
               norm_class_idx: 0
      -
         nodes:
            -
               depth: 0
               value: -1.8302913615564995e+00
               norm_class_idx: 0
               splits:
                  - { var:79, quality:7.4115532636642456e-01,
                      le:4.2087540030479431e-02 }
            -
               depth: 1
               value: 1.8302913615564995e+00
               norm_class_idx: 1
            -
               depth: 1
               value: -1.8302913615564995e+00
               norm_class_idx: 0
      -
         nodes:
            -
               depth: 0
               value: -1.6534234552194960e+00
               norm_class_idx: 0
               splits:
                  - { var:7, quality:7.3822188377380371e-01,
                      le:3.1972618103027344e+01 }
            -
               depth: 1
               value: -1.6534234552194960e+00
               norm_class_idx: 0
            -
               depth: 1
               value: 1.6534234552194960e+00
               norm_class_idx: 1
      -
         nodes:
            -
               depth: 0
               value: 1.2677234505664914e+00
               norm_class_idx: 1
               splits:
                  - { var:1, quality:6.3741773366928101e-01,
                      le:7.8811025619506836e+00 }
            -
               depth: 1
               value: -1.2677234505664914e+00
               norm_class_idx: 0
            -
               depth: 1
               value: 1.2677234505664914e+00
               norm_class_idx: 1
      -
         nodes:
            -
               depth: 0
               value: -1.4734880636396079e+00
               norm_class_idx: 0
               splits:
                  - { var:2, quality:7.0718312263488770e-01,
                      le:1.3723396301269531e+02 }
            -
               depth: 1
               value: 1.4734880636396079e+00
               norm_class_idx: 1
            -
               depth: 1
               value: -1.4734880636396079e+00
               norm_class_idx: 0
      -
         nodes:
            -
               depth: 0
               value: -1.5875649086482801e+00
               norm_class_idx: 0
               splits:
                  - { var:10, quality:7.2339212894439697e-01,
                      le:1.6281433403491974e-01 }
            -
               depth: 1
               value: -1.5875649086482801e+00
               norm_class_idx: 0
            -
               depth: 1
               value: 1.5875649086482801e+00
               norm_class_idx: 1
      -
         nodes:
            -
               depth: 0
               value: 1.4401433536324104e+00
               norm_class_idx: 1
               splits:
                  - { var:73, quality:6.6324776411056519e-01,
                      le:2.5252526998519897e-01 }
            -
               depth: 1
               value: 1.4401433536324104e+00
               norm_class_idx: 1
            -
               depth: 1
               value: -1.4401433536324104e+00
               norm_class_idx: 0
      -
         nodes:
            -
               depth: 0
               value: -1.7839482782970932e+00
               norm_class_idx: 0
               splits:
                  - { var:4, quality:7.5383073091506958e-01,
                      le:5.4713803529739380e-01 }
            -
               depth: 1
               value: -1.7839482782970932e+00
               norm_class_idx: 0
            -
               depth: 1
               value: 1.7839482782970932e+00
               norm_class_idx: 1
      -
         nodes:
            -
               depth: 0
               value: -1.4260789668407881e+00
               norm_class_idx: 0
               splits:
                  - { var:7, quality:6.9569933414459229e-01,
                      le:3.1972618103027344e+01 }
            -
               depth: 1
               value: -1.4260789668407881e+00
               norm_class_idx: 0
            -
               depth: 1
               value: 1.4260789668407881e+00
               norm_class_idx: 1
      -
         nodes:
            -
               depth: 0
               value: 1.6629319059985495e+00
               norm_class_idx: 1
               splits:
                  - { var:1, quality:7.0498293638229370e-01,
                      le:1.7362495422363281e+01 }
            -
               depth: 1
               value: -1.6629319059985495e+00
               norm_class_idx: 0
            -
               depth: 1
               value: 1.6629319059985495e+00
               norm_class_idx: 1
      -
         nodes:
            -
               depth: 0
               value: 1.5099296695462707e+00
               norm_class_idx: 1
               splits:
                  - { var:2, quality:7.2029799222946167e-01,
                      le:1.3767352294921875e+02 }
            -
               depth: 1
               value: 1.5099296695462707e+00
               norm_class_idx: 1
            -
               depth: 1
               value: -1.5099296695462707e+00
               norm_class_idx: 0
      -
         nodes:
            -
               depth: 0
               value: -1.3475837506190544e+00
               norm_class_idx: 0
               splits:
                  - { var:7, quality:6.8131017684936523e-01,
                      le:2.5785749435424805e+01 }
            -
               depth: 1
               value: -1.3475837506190544e+00
               norm_class_idx: 0
            -
               depth: 1
               value: 1.3475837506190544e+00
               norm_class_idx: 1
      -
         nodes:
            -
               depth: 0
               value: 1.7527800176656878e+00
               norm_class_idx: 1
               splits:
                  - { var:73, quality:7.1405363082885742e-01,
                      le:2.5252526998519897e-01 }
            -
               depth: 1
               value: 1.7527800176656878e+00
               norm_class_idx: 1
            -
               depth: 1
               value: -1.7527800176656878e+00
               norm_class_idx: 0
      -
         nodes:
            -
               depth: 0
               value: -1.6728250636413398e+00
               norm_class_idx: 0
               splits:
                  - { var:3, quality:7.3514842987060547e-01,
                      le:6.3477725982666016e+01 }
            -
               depth: 1
               value: -1.6728250636413398e+00
               norm_class_idx: 0
            -
               depth: 1
               value: 1.6728250636413398e+00
               norm_class_idx: 1
      -
         nodes:
            -
               depth: 0
               value: -1.5590859528966343e+00
               norm_class_idx: 0
               splits:
                  - { var:11, quality:7.0520734786987305e-01,
                      le:7.2018175125122070e+00 }
            -
               depth: 1
               value: -1.5590859528966343e+00
               norm_class_idx: 0
            -
               depth: 1
               value: 1.5590859528966343e+00
               norm_class_idx: 1
      -
         nodes:
            -
               depth: 0
               value: 1.2517517934190610e+00
               norm_class_idx: 1
               splits:
                  - { var:13, quality:6.6894447803497314e-01,
                      le:2.9082490921020508e+01 }
            -
               depth: 1
               value: 1.2517517934190610e+00
               norm_class_idx: 1
            -
               depth: 1
               value: -1.2517517934190610e+00
               norm_class_idx: 0
      -
         nodes:
            -
               depth: 0
               value: -1.2652203915848372e+00
               norm_class_idx: 0
               splits:
                  - { var:2, quality:7.0794582366943359e-01,
                      le:1.3767352294921875e+02 }
            -
               depth: 1
               value: 1.2652203915848372e+00
               norm_class_idx: 1
            -
               depth: 1
               value: -1.2652203915848372e+00
               norm_class_idx: 0
      -
         nodes:
            -
               depth: 0
               value: -1.8571454305835013e+00
               norm_class_idx: 0
               splits:
                  - { var:5, quality:7.5366300344467163e-01,
                      le:6.0604262351989746e+00 }
            -
               depth: 1
               value: -1.8571454305835013e+00
               norm_class_idx: 0
            -
               depth: 1
               value: 1.8571454305835013e+00
               norm_class_idx: 1
      -
         nodes:
            -
               depth: 0
               value: 1.4825371454033272e+00
               norm_class_idx: 1
               splits:
                  - { var:1, quality:7.0795065164566040e-01,
                      le:6.1520660400390625e+01 }
            -
               depth: 1
               value: -1.4825371454033272e+00
               norm_class_idx: 0
            -
               depth: 1
               value: 1.4825371454033272e+00
               norm_class_idx: 1
      -
         nodes:
            -
               depth: 0
               value: 1.8798066302385079e+00
               norm_class_idx: 1
               splits:
                  - { var:73, quality:7.2911119461059570e-01,
                      le:2.5252526998519897e-01 }
            -
               depth: 1
               value: 1.8798066302385079e+00
               norm_class_idx: 1
            -
               depth: 1
               value: -1.8798066302385079e+00
               norm_class_idx: 0
      -
         nodes:
            -
               depth: 0
               value: -1.2331350827789176e+00
               norm_class_idx: 0
               splits:
                  - { var:2, quality:6.8469798564910889e-01,
                      le:1.3767352294921875e+02 }
            -
               depth: 1
               value: 1.2331350827789176e+00
               norm_class_idx: 1
            -
               depth: 1
               value: -1.2331350827789176e+00
               norm_class_idx: 0
      -
         nodes:
            -
               depth: 0
               value: -1.7928576894780974e+00
               norm_class_idx: 0
               splits:
                  - { var:7, quality:7.4085867404937744e-01,
                      le:3.1972618103027344e+01 }
            -
               depth: 1
               value: -1.7928576894780974e+00
               norm_class_idx: 0
            -
               depth: 1
               value: 1.7928576894780974e+00
               norm_class_idx: 1
      -
         nodes:
            -
               depth: 0
               value: 1.4925097344918341e+00
               norm_class_idx: 1
               splits:
                  - { var:13, quality:7.0574235916137695e-01,
                      le:2.1254207611083984e+01 }
            -
               depth: 1
               value: 1.4925097344918341e+00
               norm_class_idx: 1
            -
               depth: 1
               value: -1.4925097344918341e+00
               norm_class_idx: 0
      -
         nodes:
            -
               depth: 0
               value: -1.5823912085984704e+00
               norm_class_idx: 0
               splits:
                  - { var:1, quality:7.0582407712936401e-01,
                      le:6.1520660400390625e+01 }
            -
               depth: 1
               value: -1.5823912085984704e+00
               norm_class_idx: 0
            -
               depth: 1
               value: 1.5823912085984704e+00
               norm_class_idx: 1
      -
         nodes:
            -
               depth: 0
               value: 1.5530378353689747e+00
               norm_class_idx: 1
               splits:
                  - { var:2, quality:7.2437846660614014e-01,
                      le:1.3767352294921875e+02 }
            -
               depth: 1
               value: 1.5530378353689747e+00
               norm_class_idx: 1
            -
               depth: 1
               value: -1.5530378353689747e+00
               norm_class_idx: 0
      -
         nodes:
            -
               depth: 0
               value: -1.7542932786238574e+00
               norm_class_idx: 0
               splits:
                  - { var:5, quality:7.3971420526504517e-01,
                      le:6.0287823677062988e+00 }
            -
               depth: 1
               value: -1.7542932786238574e+00
               norm_class_idx: 0
            -
               depth: 1
               value: 1.7542932786238574e+00
               norm_class_idx: 1
      -
         nodes:
            -
               depth: 0
               value: 2.0741484829012715e+00
               norm_class_idx: 1
               splits:
                  - { var:79, quality:7.6562732458114624e-01,
                      le:4.2087540030479431e-02 }
            -
               depth: 1
               value: 2.0741484829012715e+00
               norm_class_idx: 1
            -
               depth: 1
               value: -2.0741484829012715e+00
               norm_class_idx: 0
      -
         nodes:
            -
               depth: 0
               value: -1.3929968472096603e+00
               norm_class_idx: 0
               splits:
                  - { var:17, quality:6.9177937507629395e-01,
                      le:4.2087540030479431e-02 }
            -
               depth: 1
               value: 1.3929968472096603e+00
               norm_class_idx: 1
            -
               depth: 1
               value: -1.3929968472096603e+00
               norm_class_idx: 0
      -
         nodes:
            -
               depth: 0
               value: -1.3354363194542549e+00
               norm_class_idx: 0
               splits:
                  - { var:1, quality:6.6434246301651001e-01,
                      le:8.2269821166992188e+01 }
            -
               depth: 1
               value: -1.3354363194542549e+00
               norm_class_idx: 0
            -
               depth: 1
               value: 1.3354363194542549e+00
               norm_class_idx: 1
      -
         nodes:
            -
               depth: 0
               value: 1.4046019631594988e+00
               norm_class_idx: 1
               splits:
                  - { var:79, quality:6.5511703491210938e-01,
                      le:4.2087540030479431e-02 }
            -
               depth: 1
               value: 1.4046019631594988e+00
               norm_class_idx: 1
            -
               depth: 1
               value: -1.4046019631594988e+00
               norm_class_idx: 0
      -
         nodes:
            -
               depth: 0
               value: -1.4679228842684122e+00
               norm_class_idx: 0
               splits:
                  - { var:7, quality:6.8441075086593628e-01,
                      le:2.5785749435424805e+01 }
            -
               depth: 1
               value: -1.4679228842684122e+00
               norm_class_idx: 0
            -
               depth: 1
               value: 1.4679228842684122e+00
               norm_class_idx: 1
      -
         nodes:
            -
               depth: 0
               value: 1.5411815544126541e+00
               norm_class_idx: 1
               splits:
                  - { var:17, quality:7.0770126581192017e-01,
                      le:8.3664436340332031e+00 }
            -
               depth: 1
               value: 1.5411815544126541e+00
               norm_class_idx: 1
            -
               depth: 1
               value: -1.5411815544126541e+00
               norm_class_idx: 0
      -
         nodes:
            -
               depth: 0
               value: -1.6676382220236770e+00
               norm_class_idx: 0
               splits:
                  - { var:5, quality:7.1257233619689941e-01,
                      le:6.0604262351989746e+00 }
            -
               depth: 1
               value: -1.6676382220236770e+00
               norm_class_idx: 0
            -
               depth: 1
               value: 1.6676382220236770e+00
               norm_class_idx: 1
      -
         nodes:
            -
               depth: 0
               value: 1.7038776551517323e+00
               norm_class_idx: 1
               splits:
                  - { var:13, quality:7.2553664445877075e-01,
                      le:2.7997262954711914e+01 }
            -
               depth: 1
               value: 1.7038776551517323e+00
               norm_class_idx: 1
            -
               depth: 1
               value: -1.7038776551517323e+00
               norm_class_idx: 0
      -
         nodes:
            -
               depth: 0
               value: -1.5593736986494786e+00
               norm_class_idx: 0
               splits:
                  - { var:1, quality:6.9684594869613647e-01,
                      le:6.1520660400390625e+01 }
            -
               depth: 1
               value: -1.5593736986494786e+00
               norm_class_idx: 0
            -
               depth: 1
               value: 1.5593736986494786e+00
               norm_class_idx: 1
      -
         nodes:
            -
               depth: 0
               value: 1.5387445096112613e+00
               norm_class_idx: 1
               splits:
                  - { var:73, quality:6.7855912446975708e-01,
                      le:2.5252526998519897e-01 }
            -
               depth: 1
               value: 1.5387445096112613e+00
               norm_class_idx: 1
            -
               depth: 1
               value: -1.5387445096112613e+00
               norm_class_idx: 0
      -
         nodes:
            -
               depth: 0
               value: -1.4433951685742576e+00
               norm_class_idx: 0
               splits:
                  - { var:72, quality:7.2605562210083008e-01,
                      le:3.9028859138488770e-01 }
            -
               depth: 1
               value: 1.4433951685742576e+00
               norm_class_idx: 1
            -
               depth: 1
               value: -1.4433951685742576e+00
               norm_class_idx: 0
      -
         nodes:
            -
               depth: 0
               value: -1.9779083278429279e+00
               norm_class_idx: 0
               splits:
                  - { var:7, quality:7.9309475421905518e-01,
                      le:3.1972618103027344e+01 }
            -
               depth: 1
               value: -1.9779083278429279e+00
               norm_class_idx: 0
            -
               depth: 1
               value: 1.9779083278429279e+00
               norm_class_idx: 1
      -
         nodes:
            -
               depth: 0
               value: 1.1060447043341066e+00
               norm_class_idx: 1
               splits:
                  - { var:5, quality:6.5474134683609009e-01,
                      le:6.0287823677062988e+00 }
            -
               depth: 1
               value: -1.1060447043341066e+00
               norm_class_idx: 0
            -
               depth: 1
               value: 1.1060447043341066e+00
               norm_class_idx: 1
      -
         nodes:
            -
               depth: 0
               value: 1.8604345494037302e+00
               norm_class_idx: 1
               splits:
                  - { var:79, quality:7.2735583782196045e-01,
                      le:4.2087540030479431e-02 }
            -
               depth: 1
               value: 1.8604345494037302e+00
               norm_class_idx: 1
            -
               depth: 1
               value: -1.8604345494037302e+00
               norm_class_idx: 0
      -
         nodes:
            -
               depth: 0
               value: -1.6145737724771319e+00
               norm_class_idx: 0
               splits:
                  - { var:4, quality:7.0510369539260864e-01,
                      le:9.1442632675170898e+00 }
            -
               depth: 1
               value: -1.6145737724771319e+00
               norm_class_idx: 0
            -
               depth: 1
               value: 1.6145737724771319e+00
               norm_class_idx: 1
      -
         nodes:
            -
               depth: 0
               value: 1.0989525921656116e+00
               norm_class_idx: 1
               splits:
                  - { var:2, quality:6.3996362686157227e-01,
                      le:1.3767352294921875e+02 }
            -
               depth: 1
               value: 1.0989525921656116e+00
               norm_class_idx: 1
            -
               depth: 1
               value: -1.0989525921656116e+00
               norm_class_idx: 0
      -
         nodes:
            -
               depth: 0
               value: -1.4084478146321808e+00
               norm_class_idx: 0
               splits:
                  - { var:73, quality:7.1306973695755005e-01,
                      le:2.5252526998519897e-01 }
            -
               depth: 1
               value: 1.4084478146321808e+00
               norm_class_idx: 1
            -
               depth: 1
               value: -1.4084478146321808e+00
               norm_class_idx: 0
      -
         nodes:
            -
               depth: 0
               value: -1.9034327553343684e+00
               norm_class_idx: 0
               splits:
                  - { var:7, quality:7.5958013534545898e-01,
                      le:3.1972618103027344e+01 }
            -
               depth: 1
               value: -1.9034327553343684e+00
               norm_class_idx: 0
            -
               depth: 1
               value: 1.9034327553343684e+00
               norm_class_idx: 1
      -
         nodes:
            -
               depth: 0
               value: 1.3016415240441070e+00
               norm_class_idx: 1
               splits:
                  - { var:0, quality:6.5599149465560913e-01,
                      le:1.8994207382202148e+00 }
            -
               depth: 1
               value: -1.3016415240441070e+00
               norm_class_idx: 0
            -
               depth: 1
               value: 1.3016415240441070e+00
               norm_class_idx: 1
      -
         nodes:
            -
               depth: 0
               value: 1.5001620383010126e+00
               norm_class_idx: 1
               splits:
                  - { var:2, quality:6.8884873390197754e-01,
                      le:1.3767352294921875e+02 }
            -
               depth: 1
               value: 1.5001620383010126e+00
               norm_class_idx: 1
            -
               depth: 1
               value: -1.5001620383010126e+00
               norm_class_idx: 0
      -
         nodes:
            -
               depth: 0
               value: -1.7321554857096784e+00
               norm_class_idx: 0
               splits:
                  - { var:2, quality:7.0411396026611328e-01,
                      le:3.1072723388671875e+01 }
            -
               depth: 1
               value: -1.7321554857096784e+00
               norm_class_idx: 0
            -
               depth: 1
               value: 1.7321554857096784e+00
               norm_class_idx: 1
      -
         nodes:
            -
               depth: 0
               value: -1.4200052711528017e+00
               norm_class_idx: 0
               splits:
                  - { var:7, quality:6.8579673767089844e-01,
                      le:2.5785749435424805e+01 }
            -
               depth: 1
               value: -1.4200052711528017e+00
               norm_class_idx: 0
            -
               depth: 1
               value: 1.4200052711528017e+00
               norm_class_idx: 1
      -
         nodes:
            -
               depth: 0
               value: 1.4983490717084456e+00
               norm_class_idx: 1
               splits:
                  - { var:2, quality:6.9571352005004883e-01,
                      le:1.3767352294921875e+02 }
            -
               depth: 1
               value: 1.4983490717084456e+00
               norm_class_idx: 1
            -
               depth: 1
               value: -1.4983490717084456e+00
               norm_class_idx: 0
