FANN_FLO_2.1
num_layers=2
learning_rate=0.700000
connection_rate=1.000000
network_type=0
learning_momentum=0.000000
training_algorithm=2
train_error_function=1
train_stop_function=0
cascade_output_change_fraction=0.010000
quickprop_decay=-0.000100
quickprop_mu=1.750000
rprop_increase_factor=1.200000
rprop_decrease_factor=0.500000
rprop_delta_min=0.000000
rprop_delta_max=50.000000
rprop_delta_zero=0.100000
cascade_output_stagnation_epochs=12
cascade_candidate_change_fraction=0.010000
cascade_candidate_stagnation_epochs=12
cascade_max_out_epochs=150
cascade_min_out_epochs=50
cascade_max_cand_epochs=150
cascade_min_cand_epochs=50
cascade_num_candidate_groups=2
bit_fail_limit=3.49999994039535522461e-01
cascade_candidate_limit=1.00000000000000000000e+03
cascade_weight_multiplier=4.00000005960464477539e-01
cascade_activation_functions_count=10
cascade_activation_functions=3 5 7 8 10 11 14 15 16 17 
cascade_activation_steepnesses_count=4
cascade_activation_steepnesses=2.50000000000000000000e-01 5.00000000000000000000e-01 7.50000000000000000000e-01 1.00000000000000000000e+00 
layer_sizes=126 4 
scale_included=0
neurons (num_inputs, activation_function, activation_steepness)=(0, 0, 0.00000000000000000000e+00) (0, 0, 0.00000000000000000000e+00) (0, 0, 0.00000000000000000000e+00) (0, 0, 0.00000000000000000000e+00) (0, 0, 0.00000000000000000000e+00) (0, 0, 0.00000000000000000000e+00) (0, 0, 0.00000000000000000000e+00) (0, 0, 0.00000000000000000000e+00) (0, 0, 0.00000000000000000000e+00) (0, 0, 0.00000000000000000000e+00) (0, 0, 0.00000000000000000000e+00) (0, 0, 0.00000000000000000000e+00) (0, 0, 0.00000000000000000000e+00) (0, 0, 0.00000000000000000000e+00) (0, 0, 0.00000000000000000000e+00) (0, 0, 0.00000000000000000000e+00) (0, 0, 0.00000000000000000000e+00) (0, 0, 0.00000000000000000000e+00) (0, 0, 0.00000000000000000000e+00) (0, 0, 0.00000000000000000000e+00) (0, 0, 0.00000000000000000000e+00) (0, 0, 0.00000000000000000000e+00) (0, 0, 0.00000000000000000000e+00) (0, 0, 0.00000000000000000000e+00) (0, 0, 0.00000000000000000000e+00) (0, 0, 0.00000000000000000000e+00) (0, 0, 0.00000000000000000000e+00) (0, 0, 0.00000000000000000000e+00) (0, 0, 0.00000000000000000000e+00) (0, 0, 0.00000000000000000000e+00) (0, 0, 0.00000000000000000000e+00) (0, 0, 0.00000000000000000000e+00) (0, 0, 0.00000000000000000000e+00) (0, 0, 0.00000000000000000000e+00) (0, 0, 0.00000000000000000000e+00) (0, 0, 0.00000000000000000000e+00) (0, 0, 0.00000000000000000000e+00) (0, 0, 0.00000000000000000000e+00) (0, 0, 0.00000000000000000000e+00) (0, 0, 0.00000000000000000000e+00) (0, 0, 0.00000000000000000000e+00) (0, 0, 0.00000000000000000000e+00) (0, 0, 0.00000000000000000000e+00) (0, 0, 0.00000000000000000000e+00) (0, 0, 0.00000000000000000000e+00) (0, 0, 0.00000000000000000000e+00) (0, 0, 0.00000000000000000000e+00) (0, 0, 0.00000000000000000000e+00) (0, 0, 0.00000000000000000000e+00) (0, 0, 0.00000000000000000000e+00) (0, 0, 0.00000000000000000000e+00) (0, 0, 0.00000000000000000000e+00) (0, 0, 0.00000000000000000000e+00) (0, 0, 0.00000000000000000000e+00) (0, 0, 0.00000000000000000000e+00) (0, 0, 0.00000000000000000000e+00) (0, 0, 0.00000000000000000000e+00) (0, 0, 0.00000000000000000000e+00) (0, 0, 0.00000000000000000000e+00) (0, 0, 0.00000000000000000000e+00) (0, 0, 0.00000000000000000000e+00) (0, 0, 0.00000000000000000000e+00) (0, 0, 0.00000000000000000000e+00) (0, 0, 0.00000000000000000000e+00) (0, 0, 0.00000000000000000000e+00) (0, 0, 0.00000000000000000000e+00) (0, 0, 0.00000000000000000000e+00) (0, 0, 0.00000000000000000000e+00) (0, 0, 0.00000000000000000000e+00) (0, 0, 0.00000000000000000000e+00) (0, 0, 0.00000000000000000000e+00) (0, 0, 0.00000000000000000000e+00) (0, 0, 0.00000000000000000000e+00) (0, 0, 0.00000000000000000000e+00) (0, 0, 0.00000000000000000000e+00) (0, 0, 0.00000000000000000000e+00) (0, 0, 0.00000000000000000000e+00) (0, 0, 0.00000000000000000000e+00) (0, 0, 0.00000000000000000000e+00) (0, 0, 0.00000000000000000000e+00) (0, 0, 0.00000000000000000000e+00) (0, 0, 0.00000000000000000000e+00) (0, 0, 0.00000000000000000000e+00) (0, 0, 0.00000000000000000000e+00) (0, 0, 0.00000000000000000000e+00) (0, 0, 0.00000000000000000000e+00) (0, 0, 0.00000000000000000000e+00) (0, 0, 0.00000000000000000000e+00) (0, 0, 0.00000000000000000000e+00) (0, 0, 0.00000000000000000000e+00) (0, 0, 0.00000000000000000000e+00) (0, 0, 0.00000000000000000000e+00) (0, 0, 0.00000000000000000000e+00) (0, 0, 0.00000000000000000000e+00) (0, 0, 0.00000000000000000000e+00) (0, 0, 0.00000000000000000000e+00) (0, 0, 0.00000000000000000000e+00) (0, 0, 0.00000000000000000000e+00) (0, 0, 0.00000000000000000000e+00) (0, 0, 0.00000000000000000000e+00) (0, 0, 0.00000000000000000000e+00) (0, 0, 0.00000000000000000000e+00) (0, 0, 0.00000000000000000000e+00) (0, 0, 0.00000000000000000000e+00) (0, 0, 0.00000000000000000000e+00) (0, 0, 0.00000000000000000000e+00) (0, 0, 0.00000000000000000000e+00) (0, 0, 0.00000000000000000000e+00) (0, 0, 0.00000000000000000000e+00) (0, 0, 0.00000000000000000000e+00) (0, 0, 0.00000000000000000000e+00) (0, 0, 0.00000000000000000000e+00) (0, 0, 0.00000000000000000000e+00) (0, 0, 0.00000000000000000000e+00) (0, 0, 0.00000000000000000000e+00) (0, 0, 0.00000000000000000000e+00) (0, 0, 0.00000000000000000000e+00) (0, 0, 0.00000000000000000000e+00) (0, 0, 0.00000000000000000000e+00) (0, 0, 0.00000000000000000000e+00) (0, 0, 0.00000000000000000000e+00) (0, 0, 0.00000000000000000000e+00) (0, 0, 0.00000000000000000000e+00) (0, 0, 0.00000000000000000000e+00) (0, 0, 0.00000000000000000000e+00) (0, 0, 0.00000000000000000000e+00) (126, 5, 5.00000000000000000000e-01) (126, 5, 5.00000000000000000000e-01) (126, 5, 5.00000000000000000000e-01) (0, 5, 0.00000000000000000000e+00) 
connections (connected_to_neuron, weight)=(0, 2.18630599975585937500e+01) (1, 1.12613792419433593750e+01) (2, -1.70681923627853393555e-01) (3, 2.75127708911895751953e-01) (4, 6.70108258724212646484e-01) (5, -5.04670524597167968750e+00) (6, -5.61068630218505859375e+00) (7, -4.62703227996826171875e+00) (8, -4.25051242113113403320e-01) (9, -2.59368538856506347656e+00) (10, -1.10901279449462890625e+01) (11, -2.30039167404174804688e+00) (12, -3.79784631729125976562e+00) (13, -3.21098875999450683594e+00) (14, 5.22260665893554687500e-01) (15, -9.72166442871093750000e+00) (16, -2.21206808090209960938e+00) (17, -2.72213983535766601562e+00) (18, -1.64178490638732910156e+00) (19, -4.85984420776367187500e+00) (20, -2.90602397918701171875e+00) (21, -2.16545963287353515625e+00) (22, -2.59922981262207031250e-01) (23, 3.83658933639526367188e+00) (24, -1.39001619815826416016e+00) (25, -6.66284918785095214844e-01) (26, 4.21516265869140625000e+01) (27, 2.88609206676483154297e-01) (28, 1.51683216094970703125e+01) (29, 1.90958738327026367188e-01) (30, -1.85036575794219970703e+00) (31, -1.12030200958251953125e+01) (32, -5.53269577026367187500e+00) (33, -1.14926993846893310547e+00) (34, -8.81868004798889160156e-01) (35, -3.67732143402099609375e+00) (36, -1.83646988868713378906e+00) (37, -3.55164051055908203125e+00) (38, 6.07144498825073242188e+00) (39, 2.46179199218750000000e+01) (40, -4.14075565338134765625e+00) (41, 5.56434154510498046875e-01) (42, 1.30823397636413574219e+00) (43, 1.74196362495422363281e-02) (44, 7.22156906127929687500e+00) (45, -2.35443134307861328125e+01) (46, 5.34133911132812500000e-01) (47, 6.10823154449462890625e-01) (48, 3.44638580322265625000e+02) (49, -2.14391469955444335938e+00) (50, 8.08384704589843750000e+01) (51, 1.48520843505859375000e+02) (52, 3.62195682525634765625e+00) (53, 3.85106611251831054688e+00) (54, 7.80487954616546630859e-01) (55, -3.47075748443603515625e+00) (56, -4.82454109191894531250e+00) (57, -5.56039810180664062500e+00) (58, -1.14456691741943359375e+01) (59, -6.55867290496826171875e+00) (60, -2.99753069877624511719e+00) (61, -1.33886396884918212891e+00) (62, -4.78723621368408203125e+00) (63, -7.09484815597534179688e-02) (64, -6.01881980895996093750e-01) (65, 5.44103355407714843750e+01) (66, -1.28109931945800781250e+00) (67, 1.27948832511901855469e+00) (68, 1.03223552703857421875e+01) (69, 1.88513965606689453125e+01) (70, 8.48663482666015625000e+01) (71, 3.20417970418930053711e-01) (72, 5.48415184020996093750e-01) (73, 4.55038070678710937500e-01) (74, -2.12659883499145507812e+00) (75, 1.42298526763916015625e+01) (76, 2.45674467086791992188e+00) (77, -7.88822531700134277344e-01) (78, 1.79817438125610351562e+00) (79, 1.20355916023254394531e+00) (80, -4.11520767211914062500e+00) (81, -4.21803188323974609375e+00) (82, -1.20707798004150390625e+01) (83, -7.14805030822753906250e+00) (84, -2.80780720710754394531e+00) (85, 7.03125572204589843750e+00) (86, 3.98744916915893554688e+00) (87, 1.76650714874267578125e+01) (88, 1.66213951110839843750e+01) (89, 1.63635616302490234375e+01) (90, 4.28338193893432617188e+00) (91, 5.51996898651123046875e+00) (92, 1.94547367095947265625e+01) (93, 1.95208759307861328125e+01) (94, 7.85303711891174316406e-02) (95, 6.02273988723754882812e+00) (96, -3.71755456924438476562e+00) (97, 3.44636352539062500000e+02) (98, 3.44779571533203125000e+02) (99, -6.58460330963134765625e+00) (100, 6.68628406524658203125e+00) (101, 4.60346192121505737305e-01) (102, -3.18966895341873168945e-01) (103, 4.07627630233764648438e+00) (104, 5.32405471801757812500e+00) (105, -2.25824604034423828125e+01) (106, -9.18618202209472656250e+00) (107, -3.21900725364685058594e+00) (108, -7.62300729751586914062e+00) (109, -3.24480133056640625000e+01) (110, -1.13333785533905029297e+00) (111, -3.61635327339172363281e+00) (112, -2.82636094093322753906e+00) (113, -2.12725877761840820312e+00) (114, -3.24708442687988281250e+01) (115, -9.20150041580200195312e-01) (116, -3.34640312194824218750e+00) (117, 3.15233612060546875000e+00) (118, -5.97103214263916015625e+00) (119, -6.46726751327514648438e+00) (120, -1.07910358905792236328e+00) (121, -3.15097141265869140625e+00) (122, -1.37420094013214111328e+00) (123, 1.95094168186187744141e+00) (124, 7.34613180160522460938e+00) (125, -9.57385227084159851074e-02) (0, -4.34433555603027343750e+00) (1, -7.97226047515869140625e+00) (2, 5.43614053726196289062e+00) (3, -2.51858741044998168945e-01) (4, 1.96509766578674316406e+00) (5, -1.03143118321895599365e-01) (6, -1.55883884429931640625e+00) (7, -1.80248534679412841797e+00) (8, -2.78224825859069824219e+00) (9, -3.01804572343826293945e-01) (10, 2.19498611986637115479e-02) (11, 8.73398423194885253906e-01) (12, -1.04968690872192382812e+00) (13, -6.20471048355102539062e+00) (14, -6.15635538101196289062e+00) (15, -2.86482548713684082031e+00) (16, -1.53273177146911621094e+00) (17, -9.44133475422859191895e-02) (18, -6.23054933547973632812e+00) (19, 3.28581771850585937500e+01) (20, -7.64915895462036132812e+00) (21, -3.00172352790832519531e+00) (22, -2.53905200958251953125e+00) (23, -1.60415287017822265625e+01) (24, 4.72469329833984375000e+01) (25, -5.57845878601074218750e+00) (26, -1.23431415557861328125e+01) (27, -3.40029859542846679688e+00) (28, -1.45779123306274414062e+01) (29, 2.37366366386413574219e+00) (30, -2.92864274978637695312e+00) (31, 7.57609844207763671875e-01) (32, 2.48122072219848632812e+00) (33, -7.71951198577880859375e-01) (34, 4.75282144546508789062e+00) (35, -9.87671673297882080078e-01) (36, -1.71107637882232666016e+00) (37, -5.33617019653320312500e-01) (38, 1.55227410793304443359e+00) (39, 3.44754211425781250000e+02) (40, 3.74922060966491699219e+00) (41, 5.58546781539916992188e+00) (42, 3.04315924644470214844e-01) (43, 7.01375675201416015625e+00) (44, 3.44672790527343750000e+02) (45, 7.63016462326049804688e-01) (46, 6.96641635894775390625e+00) (47, 7.10936069488525390625e+00) (48, 3.44743347167968750000e+02) (49, 3.44759155273437500000e+02) (50, -1.22404613494873046875e+01) (51, -5.04932403564453125000e+00) (52, -6.72099351882934570312e+00) (53, -1.23326194286346435547e+00) (54, 1.22894272208213806152e-01) (55, -2.21407222747802734375e+00) (56, 8.17166507244110107422e-01) (57, -2.29797649383544921875e+00) (58, 9.94833111763000488281e-01) (59, 3.58306050300598144531e+00) (60, -7.88667297363281250000e+00) (61, -1.67323219776153564453e+00) (62, -1.08780765533447265625e+00) (63, 7.98630523681640625000e+00) (64, -3.76377105712890625000e-01) (65, -1.00119733810424804688e+01) (66, -9.09633159637451171875e+00) (67, 1.46281170845031738281e+00) (68, 4.77189111709594726562e+00) (69, 1.21894598007202148438e+01) (70, -6.36639404296875000000e+00) (71, 1.73952743411064147949e-01) (72, 6.96355628967285156250e+00) (73, 7.12519073486328125000e+00) (74, 3.44642059326171875000e+02) (75, -2.00523686408996582031e+00) (76, 4.23093497753143310547e-01) (77, 1.13153541088104248047e+00) (78, 1.05805039405822753906e+00) (79, 6.70253396034240722656e-01) (80, 8.96443873643875122070e-02) (81, 1.28382360935211181641e+00) (82, -3.76308321952819824219e-01) (83, 3.46592521667480468750e+00) (84, 7.86485910415649414062e-01) (85, -1.10952770709991455078e+00) (86, -4.49809455871582031250e+00) (87, -7.17989110946655273438e+00) (88, 1.13453304767608642578e+00) (89, 1.21308469772338867188e+01) (90, -8.97932052612304687500e+00) (91, -2.49751150608062744141e-01) (92, -3.83735466003417968750e+00) (93, -4.00571632385253906250e+00) (94, 3.44767028808593750000e+02) (95, -2.45723419189453125000e+01) (96, 6.06958465576171875000e+01) (97, 3.44732086181640625000e+02) (98, 3.44719329833984375000e+02) (99, 1.67120494842529296875e+01) (100, -1.81007728576660156250e+01) (101, -2.96871256828308105469e+00) (102, 6.95929050445556640625e+00) (103, 6.99081569910049438477e-02) (104, -1.03367835283279418945e-01) (105, -7.10642457008361816406e-01) (106, -6.19942665100097656250e-01) (107, -4.19638782739639282227e-01) (108, -2.01744270324707031250e+00) (109, 2.34698390960693359375e+00) (110, -1.94083118438720703125e+00) (111, 7.25550293922424316406e-01) (112, 7.59865880012512207031e-01) (113, -8.42902481555938720703e-01) (114, -3.66122633218765258789e-01) (115, -7.60959482192993164062e+00) (116, -3.16677182912826538086e-01) (117, -4.85622018575668334961e-01) (118, 5.70408880710601806641e-01) (119, -4.65503662824630737305e-01) (120, -1.50116147994995117188e+01) (121, -1.76515161991119384766e+00) (122, -1.60725250840187072754e-01) (123, 4.41285467147827148438e+00) (124, -4.67532062530517578125e+00) (125, 1.38876333832740783691e-01) (0, -1.38415873050689697266e+00) (1, 1.14355087280273437500e-01) (2, -4.66587483882904052734e-01) (3, 5.64128279685974121094e-01) (4, -5.04599452018737792969e-01) (5, -8.42959022521972656250e+00) (6, 1.44977502822875976562e+01) (7, 2.03691959381103515625e+01) (8, 2.09951648712158203125e+01) (9, 1.61850910186767578125e+01) (10, 4.87261390686035156250e+00) (11, 7.21652832031250000000e+01) (12, 1.76987552642822265625e+01) (13, 2.11244869232177734375e+01) (14, 1.30508308410644531250e+01) (15, 3.44640563964843750000e+02) (16, 2.61382904052734375000e+01) (17, 1.35745840072631835938e+01) (18, 2.47278804779052734375e+01) (19, -8.04000735282897949219e-01) (20, 3.44738037109375000000e+02) (21, 2.60263023376464843750e+01) (22, -1.35674431920051574707e-01) (23, 1.54033107757568359375e+01) (24, -3.84229874610900878906e+00) (25, 7.20654606819152832031e-01) (26, -3.14941614866256713867e-01) (27, 5.63844323158264160156e-01) (28, 9.54615116119384765625e-01) (29, -1.85941308736801147461e-01) (30, -1.08241634368896484375e+01) (31, 3.92756319046020507812e+00) (32, 3.44689514160156250000e+02) (33, 2.04125938415527343750e+01) (34, -1.58619394302368164062e+01) (35, 4.82386207580566406250e+00) (36, 3.44715393066406250000e+02) (37, 3.44767700195312500000e+02) (38, 4.77504119873046875000e+01) (39, -8.28935146331787109375e-01) (40, 3.44778472900390625000e+02) (41, 3.44783233642578125000e+02) (42, 3.44749267578125000000e+02) (43, 1.55651531219482421875e+01) (44, -2.17882585525512695312e+00) (45, 3.44700622558593750000e+02) (46, 3.44834136962890625000e+02) (47, 3.44731872558593750000e+02) (48, 3.44815887451171875000e+02) (49, -4.31163835525512695312e+00) (50, -1.30585640668869018555e-01) (51, -5.60204461216926574707e-02) (52, 5.59913694858551025391e-01) (53, 1.84339237213134765625e+00) (54, -2.35035657882690429688e-01) (55, 1.46766912937164306641e+00) (56, -3.20781493186950683594e+00) (57, 7.87999963760375976562e+00) (58, 1.61611118316650390625e+01) (59, 2.46835651397705078125e+01) (60, -1.76950097084045410156e+00) (61, -6.85561060905456542969e-01) (62, 7.92878389358520507812e+00) (63, 1.87283401489257812500e+01) (64, 1.43303909301757812500e+01) (65, -5.11391210556030273438e+00) (66, 1.70604920387268066406e+00) (67, 1.09054193496704101562e+01) (68, 4.46066398620605468750e+01) (69, 1.03433537483215332031e+00) (70, -4.74988794326782226562e+00) (71, 3.19636726379394531250e+01) (72, 3.44758270263671875000e+02) (73, 3.44804351806640625000e+02) (74, -4.35930204391479492188e+00) (75, -1.19605064392089843750e-01) (76, 1.75087228417396545410e-01) (77, -3.71632009744644165039e-01) (78, -6.50725841522216796875e-01) (79, 2.78753072023391723633e-01) (80, 7.96276044845581054688e+00) (81, 1.36360311508178710938e+00) (82, 7.96447086334228515625e+00) (83, 1.08045892715454101562e+01) (84, 7.70380735397338867188e+00) (85, 5.22919607162475585938e+00) (86, 4.47539281845092773438e+00) (87, 3.52925801277160644531e+00) (88, 8.18929004669189453125e+00) (89, 4.00253772735595703125e+00) (90, 9.18122959136962890625e+00) (91, -2.57427287101745605469e+00) (92, 3.37296336889266967773e-01) (93, 1.28268728256225585938e+01) (94, -2.18221569061279296875e+00) (95, 4.45429267883300781250e+01) (96, 3.47935032844543457031e+00) (97, 3.44777618408203125000e+02) (98, 3.44639678955078125000e+02) (99, -3.90545654296875000000e+00) (100, 4.02590656280517578125e+00) (101, 1.16475927829742431641e+00) (102, -7.35585749149322509766e-01) (103, -3.11154499650001525879e-03) (104, -6.65616989135742187500e-01) (105, 1.43936119079589843750e+01) (106, 1.18014993667602539062e+01) (107, 1.77156295776367187500e+01) (108, 2.30168579101562500000e+02) (109, 2.84864687919616699219e+00) (110, 1.08731508255004882812e+01) (111, 1.18472051620483398438e+01) (112, 1.47932863235473632812e+01) (113, 2.65714969635009765625e+01) (114, 2.95257639884948730469e+00) (115, 4.45518760681152343750e+01) (116, 2.59830360412597656250e+01) (117, 1.77876663208007812500e+01) (118, 2.30086700439453125000e+02) (119, 1.67757835388183593750e+01) (120, 1.04639404296875000000e+02) (121, 7.20304107666015625000e+01) (122, 2.03686380386352539062e+00) (123, 3.44711395263671875000e+02) (124, 3.32705078125000000000e+01) (125, 9.35045853257179260254e-02) 
