FANN_FLO_2.1
num_layers=2
learning_rate=0.700000
connection_rate=1.000000
network_type=0
learning_momentum=0.000000
training_algorithm=2
train_error_function=1
train_stop_function=0
cascade_output_change_fraction=0.010000
quickprop_decay=-0.000100
quickprop_mu=1.750000
rprop_increase_factor=1.200000
rprop_decrease_factor=0.500000
rprop_delta_min=0.000000
rprop_delta_max=50.000000
rprop_delta_zero=0.100000
cascade_output_stagnation_epochs=12
cascade_candidate_change_fraction=0.010000
cascade_candidate_stagnation_epochs=12
cascade_max_out_epochs=150
cascade_min_out_epochs=50
cascade_max_cand_epochs=150
cascade_min_cand_epochs=50
cascade_num_candidate_groups=2
bit_fail_limit=3.49999994039535522461e-01
cascade_candidate_limit=1.00000000000000000000e+03
cascade_weight_multiplier=4.00000005960464477539e-01
cascade_activation_functions_count=10
cascade_activation_functions=3 5 7 8 10 11 14 15 16 17 
cascade_activation_steepnesses_count=4
cascade_activation_steepnesses=2.50000000000000000000e-01 5.00000000000000000000e-01 7.50000000000000000000e-01 1.00000000000000000000e+00 
layer_sizes=126 4 
scale_included=0
neurons (num_inputs, activation_function, activation_steepness)=(0, 0, 0.00000000000000000000e+00) (0, 0, 0.00000000000000000000e+00) (0, 0, 0.00000000000000000000e+00) (0, 0, 0.00000000000000000000e+00) (0, 0, 0.00000000000000000000e+00) (0, 0, 0.00000000000000000000e+00) (0, 0, 0.00000000000000000000e+00) (0, 0, 0.00000000000000000000e+00) (0, 0, 0.00000000000000000000e+00) (0, 0, 0.00000000000000000000e+00) (0, 0, 0.00000000000000000000e+00) (0, 0, 0.00000000000000000000e+00) (0, 0, 0.00000000000000000000e+00) (0, 0, 0.00000000000000000000e+00) (0, 0, 0.00000000000000000000e+00) (0, 0, 0.00000000000000000000e+00) (0, 0, 0.00000000000000000000e+00) (0, 0, 0.00000000000000000000e+00) (0, 0, 0.00000000000000000000e+00) (0, 0, 0.00000000000000000000e+00) (0, 0, 0.00000000000000000000e+00) (0, 0, 0.00000000000000000000e+00) (0, 0, 0.00000000000000000000e+00) (0, 0, 0.00000000000000000000e+00) (0, 0, 0.00000000000000000000e+00) (0, 0, 0.00000000000000000000e+00) (0, 0, 0.00000000000000000000e+00) (0, 0, 0.00000000000000000000e+00) (0, 0, 0.00000000000000000000e+00) (0, 0, 0.00000000000000000000e+00) (0, 0, 0.00000000000000000000e+00) (0, 0, 0.00000000000000000000e+00) (0, 0, 0.00000000000000000000e+00) (0, 0, 0.00000000000000000000e+00) (0, 0, 0.00000000000000000000e+00) (0, 0, 0.00000000000000000000e+00) (0, 0, 0.00000000000000000000e+00) (0, 0, 0.00000000000000000000e+00) (0, 0, 0.00000000000000000000e+00) (0, 0, 0.00000000000000000000e+00) (0, 0, 0.00000000000000000000e+00) (0, 0, 0.00000000000000000000e+00) (0, 0, 0.00000000000000000000e+00) (0, 0, 0.00000000000000000000e+00) (0, 0, 0.00000000000000000000e+00) (0, 0, 0.00000000000000000000e+00) (0, 0, 0.00000000000000000000e+00) (0, 0, 0.00000000000000000000e+00) (0, 0, 0.00000000000000000000e+00) (0, 0, 0.00000000000000000000e+00) (0, 0, 0.00000000000000000000e+00) (0, 0, 0.00000000000000000000e+00) (0, 0, 0.00000000000000000000e+00) (0, 0, 0.00000000000000000000e+00) (0, 0, 0.00000000000000000000e+00) (0, 0, 0.00000000000000000000e+00) (0, 0, 0.00000000000000000000e+00) (0, 0, 0.00000000000000000000e+00) (0, 0, 0.00000000000000000000e+00) (0, 0, 0.00000000000000000000e+00) (0, 0, 0.00000000000000000000e+00) (0, 0, 0.00000000000000000000e+00) (0, 0, 0.00000000000000000000e+00) (0, 0, 0.00000000000000000000e+00) (0, 0, 0.00000000000000000000e+00) (0, 0, 0.00000000000000000000e+00) (0, 0, 0.00000000000000000000e+00) (0, 0, 0.00000000000000000000e+00) (0, 0, 0.00000000000000000000e+00) (0, 0, 0.00000000000000000000e+00) (0, 0, 0.00000000000000000000e+00) (0, 0, 0.00000000000000000000e+00) (0, 0, 0.00000000000000000000e+00) (0, 0, 0.00000000000000000000e+00) (0, 0, 0.00000000000000000000e+00) (0, 0, 0.00000000000000000000e+00) (0, 0, 0.00000000000000000000e+00) (0, 0, 0.00000000000000000000e+00) (0, 0, 0.00000000000000000000e+00) (0, 0, 0.00000000000000000000e+00) (0, 0, 0.00000000000000000000e+00) (0, 0, 0.00000000000000000000e+00) (0, 0, 0.00000000000000000000e+00) (0, 0, 0.00000000000000000000e+00) (0, 0, 0.00000000000000000000e+00) (0, 0, 0.00000000000000000000e+00) (0, 0, 0.00000000000000000000e+00) (0, 0, 0.00000000000000000000e+00) (0, 0, 0.00000000000000000000e+00) (0, 0, 0.00000000000000000000e+00) (0, 0, 0.00000000000000000000e+00) (0, 0, 0.00000000000000000000e+00) (0, 0, 0.00000000000000000000e+00) (0, 0, 0.00000000000000000000e+00) (0, 0, 0.00000000000000000000e+00) (0, 0, 0.00000000000000000000e+00) (0, 0, 0.00000000000000000000e+00) (0, 0, 0.00000000000000000000e+00) (0, 0, 0.00000000000000000000e+00) (0, 0, 0.00000000000000000000e+00) (0, 0, 0.00000000000000000000e+00) (0, 0, 0.00000000000000000000e+00) (0, 0, 0.00000000000000000000e+00) (0, 0, 0.00000000000000000000e+00) (0, 0, 0.00000000000000000000e+00) (0, 0, 0.00000000000000000000e+00) (0, 0, 0.00000000000000000000e+00) (0, 0, 0.00000000000000000000e+00) (0, 0, 0.00000000000000000000e+00) (0, 0, 0.00000000000000000000e+00) (0, 0, 0.00000000000000000000e+00) (0, 0, 0.00000000000000000000e+00) (0, 0, 0.00000000000000000000e+00) (0, 0, 0.00000000000000000000e+00) (0, 0, 0.00000000000000000000e+00) (0, 0, 0.00000000000000000000e+00) (0, 0, 0.00000000000000000000e+00) (0, 0, 0.00000000000000000000e+00) (0, 0, 0.00000000000000000000e+00) (0, 0, 0.00000000000000000000e+00) (0, 0, 0.00000000000000000000e+00) (0, 0, 0.00000000000000000000e+00) (0, 0, 0.00000000000000000000e+00) (0, 0, 0.00000000000000000000e+00) (0, 0, 0.00000000000000000000e+00) (0, 0, 0.00000000000000000000e+00) (126, 5, 5.00000000000000000000e-01) (126, 5, 5.00000000000000000000e-01) (126, 5, 5.00000000000000000000e-01) (0, 5, 0.00000000000000000000e+00) 
connections (connected_to_neuron, weight)=(0, 1.58912620544433593750e+01) (1, 4.09220606088638305664e-01) (2, 2.78017133474349975586e-01) (3, -1.65929412841796875000e+00) (4, 5.24584114551544189453e-01) (5, 2.42463760375976562500e+01) (6, 1.05191392898559570312e+01) (7, 4.43982869386672973633e-01) (8, 6.15851461887359619141e-01) (9, 3.78365308046340942383e-01) (10, 1.31990776062011718750e+01) (11, 6.84050858020782470703e-01) (12, 1.46794766187667846680e-01) (13, 1.91760063171386718750e+00) (14, 1.16003065109252929688e+01) (15, 2.42779922485351562500e+01) (16, 3.64154815673828125000e+00) (17, 6.45152181386947631836e-02) (18, 2.69511756896972656250e+01) (19, 6.19482100009918212891e-01) (20, 1.83172740936279296875e+01) (21, 2.70017051696777343750e+01) (22, 2.70501060485839843750e+01) (23, 2.69415340423583984375e+01) (24, -7.28833824396133422852e-02) (25, -2.15128827095031738281e+00) (26, -1.08895978927612304688e+01) (27, 8.10578823089599609375e-01) (28, -5.14721345901489257812e+00) (29, 8.30716133117675781250e-01) (30, 8.33388268947601318359e-01) (31, -6.47124481201171875000e+00) (32, -6.65162563323974609375e+00) (33, -4.51308107376098632812e+00) (34, -4.56886720657348632812e+00) (35, -2.58425259590148925781e+00) (36, -6.56056022644042968750e+00) (37, -6.53299427032470703125e+00) (38, 9.89376008510589599609e-03) (39, 2.69196987152099609375e+01) (40, -1.31104421615600585938e+00) (41, 2.69761276245117187500e+01) (42, 2.69515037536621093750e+01) (43, 2.70351676940917968750e+01) (44, 2.70007591247558593750e+01) (45, -6.03997898101806640625e+00) (46, 2.70937061309814453125e+01) (47, 2.70561370849609375000e+01) (48, 2.69363079071044921875e+01) (49, 2.69417953491210937500e+01) (50, 1.05271978378295898438e+01) (51, -2.68645906448364257812e+00) (52, -1.37082493305206298828e+00) (53, -1.42946898937225341797e+00) (54, 9.91042375564575195312e-01) (55, 2.69224910736083984375e+01) (56, -8.24933946132659912109e-02) (57, -4.57755231857299804688e+00) (58, -5.38677167892456054688e+00) (59, -6.53563213348388671875e+00) (60, 1.92226600646972656250e+00) (61, -6.55048084259033203125e+00) (62, -5.41212892532348632812e+00) (63, 2.70333061218261718750e+01) (64, 2.70916366577148437500e+01) (65, 3.67286503314971923828e-02) (66, 2.70675849914550781250e+01) (67, 2.69943313598632812500e+01) (68, 2.69729709625244140625e+01) (69, 2.70324401855468750000e+01) (70, -1.52086508274078369141e+00) (71, 2.69112281799316406250e+01) (72, 2.69054813385009765625e+01) (73, 2.70593605041503906250e+01) (74, 2.70433082580566406250e+01) (75, -2.61627733707427978516e-01) (76, -4.00930452346801757812e+00) (77, -5.54530620574951171875e-02) (78, 3.36853742599487304688e+00) (79, 1.02136170864105224609e+00) (80, 2.02890033721923828125e+01) (81, -4.21920537948608398438e+00) (82, 1.59188117980957031250e+01) (83, 1.59133472442626953125e+01) (84, 8.14211273193359375000e+00) (85, 1.59584255218505859375e+01) (86, 1.59327507019042968750e+01) (87, 8.76254618167877197266e-01) (88, 2.70663394927978515625e+01) (89, 2.69743556976318359375e+01) (90, -8.99801254272460937500e-01) (91, -8.01960110664367675781e-01) (92, 2.70871315002441406250e+01) (93, 2.69479484558105468750e+01) (94, 2.69151477813720703125e+01) (95, -1.45612895488739013672e+00) (96, 2.70875701904296875000e+01) (97, 2.70796451568603515625e+01) (98, 2.69669246673583984375e+01) (99, 2.69574546813964843750e+01) (100, 1.59123840332031250000e+01) (101, 1.07154977321624755859e+00) (102, -1.77359163761138916016e-01) (103, -8.62435698509216308594e-01) (104, -3.09248638153076171875e+00) (105, 2.69058151245117187500e+01) (106, 3.64450931549072265625e+00) (107, -3.15510153770446777344e-01) (108, -8.43311190605163574219e-01) (109, -1.85759794712066650391e+00) (110, 2.70201702117919921875e+01) (111, 6.93653488159179687500e+00) (112, 1.80680942535400390625e+00) (113, -2.83202338218688964844e+00) (114, -3.97776752710342407227e-01) (115, 2.70834197998046875000e+01) (116, -1.63401198387145996094e+00) (117, -4.63291168212890625000e+00) (118, -1.08833522796630859375e+01) (119, -1.43357896804809570312e+00) (120, 2.69106178283691406250e+01) (121, -1.04565277099609375000e+01) (122, -1.10348224639892578125e+01) (123, -1.08697109222412109375e+01) (124, 3.57865262031555175781e+00) (125, -7.14253336191177368164e-02) (0, -1.05903339385986328125e+00) (1, -3.92402410507202148438e+00) (2, 5.17072153091430664062e+00) (3, -1.14534068107604980469e+00) (4, -1.42549026012420654297e+00) (5, -1.75342082977294921875e+00) (6, 1.23654580116271972656e+00) (7, 1.10423326492309570312e-01) (8, -2.63068008422851562500e+00) (9, 6.45757150650024414062e+00) (10, 7.39007055759429931641e-01) (11, 1.24640520662069320679e-02) (12, 6.46348476409912109375e+00) (13, 1.18671488761901855469e+00) (14, 1.73982787132263183594e+00) (15, 4.74969673156738281250e+00) (16, -1.94543480873107910156e+00) (17, 2.70053672790527343750e+01) (18, -5.10794258117675781250e+00) (19, 8.78103637695312500000e+00) (20, 4.78165531158447265625e+00) (21, -7.59126007556915283203e-01) (22, -5.74014282226562500000e+00) (23, -2.70425415039062500000e+01) (24, -1.82777929306030273438e+00) (25, -2.95020318031311035156e+00) (26, -4.42020702362060546875e+00) (27, 6.68767547607421875000e+00) (28, 4.73630285263061523438e+00) (29, 6.44163656234741210938e+00) (30, -5.57223892211914062500e+00) (31, 8.51596832275390625000e-01) (32, -6.81930637359619140625e+00) (33, -3.12693238258361816406e+00) (34, -7.25580692291259765625e-01) (35, -5.28865385055541992188e+00) (36, -6.85640335083007812500e+00) (37, -6.83752536773681640625e+00) (38, -1.75337934494018554688e+00) (39, 2.69395103454589843750e+01) (40, -5.16608190536499023438e+00) (41, 2.70356578826904296875e+01) (42, 2.69771747589111328125e+01) (43, 2.69903240203857421875e+01) (44, 2.70213298797607421875e+01) (45, -6.69029712677001953125e+00) (46, 2.70409793853759765625e+01) (47, 2.69101161956787109375e+01) (48, 2.69786014556884765625e+01) (49, 2.69210548400878906250e+01) (50, -1.52319002151489257812e+00) (51, -2.26899456977844238281e+00) (52, 2.32709795236587524414e-01) (53, 2.94136911630630493164e-01) (54, 2.55160570144653320312e+00) (55, 6.20370769500732421875e+00) (56, 5.88471364974975585938e+00) (57, -5.80295133590698242188e+00) (58, -7.63507246971130371094e-01) (59, -6.84598159790039062500e+00) (60, 2.69971904754638671875e+01) (61, 8.12901496887207031250e+00) (62, -1.79166758060455322266e+00) (63, 2.70414161682128906250e+01) (64, 2.69782924652099609375e+01) (65, 1.62359161376953125000e+01) (66, 2.70725078582763671875e+01) (67, 2.69854202270507812500e+01) (68, 2.69712657928466796875e+01) (69, 2.69529762268066406250e+01) (70, -3.59512495994567871094e+00) (71, 2.69249305725097656250e+01) (72, 2.70855484008789062500e+01) (73, 2.70959300994873046875e+01) (74, 2.70121688842773437500e+01) (75, -1.08879446983337402344e+00) (76, -2.20270872116088867188e+00) (77, 7.09485340118408203125e+00) (78, -5.62596619129180908203e-02) (79, -2.86786109209060668945e-01) (80, -1.73193156719207763672e+00) (81, -2.11094021797180175781e+00) (82, -1.00235450267791748047e+00) (83, -1.05772221088409423828e+00) (84, -4.31120872497558593750e+00) (85, -1.08894622325897216797e+00) (86, -1.07750785350799560547e+00) (87, 2.92105495929718017578e-01) (88, -1.10656654834747314453e+00) (89, 2.70509338378906250000e+01) (90, -4.31025028228759765625e+00) (91, -6.95654034614562988281e-01) (92, 2.70400009155273437500e+01) (93, 2.70742778778076171875e+01) (94, 2.69362945556640625000e+01) (95, -3.70176291465759277344e+00) (96, 2.69164485931396484375e+01) (97, 2.69057159423828125000e+01) (98, 2.69975395202636718750e+01) (99, 2.69846267700195312500e+01) (100, -9.18000030517578125000e+00) (101, -1.20999073982238769531e+00) (102, 8.93725109100341796875e+00) (103, 1.32673466205596923828e+00) (104, 8.88687372207641601562e-01) (105, -4.35672855377197265625e+00) (106, -7.45840311050415039062e-01) (107, 1.10434226989746093750e+01) (108, -1.04702770709991455078e-01) (109, 7.45736598968505859375e+00) (110, -8.06849062442779541016e-01) (111, -4.46447801589965820312e+00) (112, 8.96476650238037109375e+00) (113, -1.50695621967315673828e-01) (114, 2.01881847381591796875e+01) (115, -3.43346536159515380859e-01) (116, -7.81226634979248046875e+00) (117, -4.48535013198852539062e+00) (118, -8.19660758972167968750e+00) (119, 1.38867082595825195312e+01) (120, -3.08255374431610107422e-01) (121, -2.04812641143798828125e+01) (122, -2.04582004547119140625e+01) (123, -8.16238307952880859375e+00) (124, 7.48957347869873046875e+00) (125, 4.39282715320587158203e-01) (0, -7.32034397125244140625e+00) (1, 9.20589029788970947266e-01) (2, -5.09921312332153320312e-01) (3, 6.34157133102416992188e+00) (4, 8.99058461189270019531e-01) (5, -4.34501314163208007812e+00) (6, -8.01460266113281250000e+00) (7, 1.30422925949096679688e+01) (8, 3.56934213638305664062e+00) (9, -2.82559394836425781250e+00) (10, -4.27449274063110351562e+00) (11, -7.18875706195831298828e-01) (12, -1.13608157634735107422e+00) (13, -3.68782615661621093750e+00) (14, -8.08779716491699218750e+00) (15, -4.26584768295288085938e+00) (16, -2.07927536964416503906e+00) (17, -4.98881673812866210938e+00) (18, -8.00925540924072265625e+00) (19, -5.39286279678344726562e+00) (20, -4.26268720626831054688e+00) (21, -2.04454040527343750000e+01) (22, -2.05482273101806640625e+01) (23, -2.05384273529052734375e+01) (24, 2.70759868621826171875e+01) (25, 5.80479431152343750000e+00) (26, 2.70547771453857421875e+01) (27, -8.01731491088867187500e+00) (28, 9.42284584045410156250e+00) (29, 9.57358717918395996094e-01) (30, 1.49355185031890869141e+00) (31, 2.69657192230224609375e+01) (32, 2.70193729400634765625e+01) (33, 2.69274978637695312500e+01) (34, 2.70556106567382812500e+01) (35, 4.51809883117675781250e+00) (36, 2.69433383941650390625e+01) (37, 2.69587135314941406250e+01) (38, 2.70637893676757812500e+01) (39, 2.69941558837890625000e+01) (40, -6.15435504913330078125e+00) (41, 2.69501495361328125000e+01) (42, 2.69806537628173828125e+01) (43, 2.69491500854492187500e+01) (44, 2.70959472656250000000e+01) (45, 1.31983661651611328125e+01) (46, 2.70441570281982421875e+01) (47, 2.69661197662353515625e+01) (48, 2.70974102020263671875e+01) (49, 2.69526042938232421875e+01) (50, -3.62105607986450195312e+00) (51, 4.22047227621078491211e-02) (52, 1.39517962932586669922e-01) (53, 3.75147432088851928711e-01) (54, -3.05962294340133666992e-01) (55, -1.06705837249755859375e+01) (56, -7.99443817138671875000e+00) (57, 2.69945316314697265625e+01) (58, 1.58695659637451171875e+01) (59, 2.70935440063476562500e+01) (60, -1.09425344467163085938e+01) (61, 2.25253057479858398438e+00) (62, 2.69561767578125000000e+01) (63, 2.69381237030029296875e+01) (64, 2.70516738891601562500e+01) (65, -8.34009170532226562500e+00) (66, 2.70249271392822265625e+01) (67, 2.70919246673583984375e+01) (68, 2.69643249511718750000e+01) (69, 2.69856281280517578125e+01) (70, 2.69829940795898437500e+01) (71, 2.69291038513183593750e+01) (72, 2.70326919555664062500e+01) (73, 2.70605583190917968750e+01) (74, 2.69751682281494140625e+01) (75, 7.48390293121337890625e+00) (76, 2.69680328369140625000e+01) (77, 1.65639638900756835938e+00) (78, -4.11947488784790039062e-01) (79, -5.74893131852149963379e-02) (80, -2.87208127975463867188e+00) (81, 1.91887035369873046875e+01) (82, -1.33189868927001953125e+00) (83, -1.43118715286254882812e+00) (84, 1.28679364919662475586e-01) (85, -1.39214539527893066406e+00) (86, -1.46848535537719726562e+00) (87, 4.88844215869903564453e-01) (88, -3.93382215499877929688e+00) (89, 2.69813499450683593750e+01) (90, 2.70436344146728515625e+01) (91, 2.70047931671142578125e+01) (92, 2.69055252075195312500e+01) (93, 2.70967216491699218750e+01) (94, 2.70398311614990234375e+01) (95, 2.70541114807128906250e+01) (96, 2.71023349761962890625e+01) (97, 2.69616699218750000000e+01) (98, 2.70429496765136718750e+01) (99, 2.69635734558105468750e+01) (100, -3.94613027572631835938e+00) (101, -4.56414413452148437500e+00) (102, 1.72974967956542968750e+00) (103, 5.37903070449829101562e-01) (104, 7.13121795654296875000e+00) (105, -3.47561979293823242188e+00) (106, -2.57084655761718750000e+00) (107, -8.07551956176757812500e+00) (108, 1.65001678466796875000e+00) (109, -2.98406076431274414062e+00) (110, -4.25940179824829101562e+00) (111, 1.46686494350433349609e+00) (112, -2.04195747375488281250e+01) (113, 7.80581235885620117188e-01) (114, -8.05972576141357421875e+00) (115, -3.89431476593017578125e+00) (116, 4.82098817825317382812e+00) (117, 4.50470590591430664062e+00) (118, 2.70461158752441406250e+01) (119, -5.40408658981323242188e+00) (120, -1.06529836654663085938e+01) (121, 2.69866619110107421875e+01) (122, 2.69324703216552734375e+01) (123, 2.70858287811279296875e+01) (124, -4.51164484024047851562e+00) (125, 1.72168165445327758789e-01) 
